digraph Tree {
node [shape=box] ;
0 [label="X[3] <= 166.042\ngini = 0.818\nsamples = 5609\nvalue = [839, 307, 99, 349, 1122, 480, 357, 279, 15, 1762]"] ;
1 [label="X[5] <= 25.489\ngini = 0.795\nsamples = 3490\nvalue = [839, 307, 99, 349, 1122, 480, 0, 279, 15, 0]"] ;
0 -> 1 [labeldistance=2.5, labelangle=45, headlabel="True"] ;
2 [label="X[3] <= 147.23\ngini = 0.556\nsamples = 2053\nvalue = [822, 0, 0, 0, 1085, 131, 0, 0, 15, 0]"] ;
1 -> 2 ;
3 [label="X[2] <= 34.691\ngini = 0.516\nsamples = 1046\nvalue = [676, 0, 0, 0, 245, 111, 0, 0, 14, 0]"] ;
2 -> 3 ;
4 [label="X[3] <= 141.895\ngini = 0.657\nsamples = 294\nvalue = [87, 0, 0, 0, 137, 56, 0, 0, 14, 0]"] ;
3 -> 4 ;
5 [label="X[4] <= 17.802\ngini = 0.634\nsamples = 111\nvalue = [42, 0, 0, 0, 21, 48, 0, 0, 0, 0]"] ;
4 -> 5 ;
6 [label="gini = 0.5\nsamples = 66\nvalue = [40, 0, 0, 0, 2, 24, 0, 0, 0, 0]"] ;
5 -> 6 ;
7 [label="gini = 0.535\nsamples = 45\nvalue = [2, 0, 0, 0, 19, 24, 0, 0, 0, 0]"] ;
5 -> 7 ;
8 [label="X[4] <= 16.504\ngini = 0.53\nsamples = 183\nvalue = [45, 0, 0, 0, 116, 8, 0, 0, 14, 0]"] ;
4 -> 8 ;
9 [label="gini = 0.613\nsamples = 83\nvalue = [44, 0, 0, 0, 24, 3, 0, 0, 12, 0]"] ;
8 -> 9 ;
10 [label="gini = 0.151\nsamples = 100\nvalue = [1, 0, 0, 0, 92, 5, 0, 0, 2, 0]"] ;
8 -> 10 ;
11 [label="X[5] <= 23.762\ngini = 0.361\nsamples = 752\nvalue = [589, 0, 0, 0, 108, 55, 0, 0, 0, 0]"] ;
3 -> 11 ;
12 [label="X[5] <= 22.889\ngini = 0.184\nsamples = 521\nvalue = [469, 0, 0, 0, 36, 16, 0, 0, 0, 0]"] ;
11 -> 12 ;
13 [label="gini = 0.027\nsamples = 287\nvalue = [283, 0, 0, 0, 0, 4, 0, 0, 0, 0]"] ;
12 -> 13 ;
14 [label="gini = 0.342\nsamples = 234\nvalue = [186, 0, 0, 0, 36, 12, 0, 0, 0, 0]"] ;
12 -> 14 ;
15 [label="X[3] <= 145.227\ngini = 0.604\nsamples = 231\nvalue = [120, 0, 0, 0, 72, 39, 0, 0, 0, 0]"] ;
11 -> 15 ;
16 [label="gini = 0.426\nsamples = 163\nvalue = [117, 0, 0, 0, 7, 39, 0, 0, 0, 0]"] ;
15 -> 16 ;
17 [label="gini = 0.084\nsamples = 68\nvalue = [3, 0, 0, 0, 65, 0, 0, 0, 0, 0]"] ;
15 -> 17 ;
18 [label="X[5] <= 19.943\ngini = 0.283\nsamples = 1007\nvalue = [146, 0, 0, 0, 840, 20, 0, 0, 1, 0]"] ;
2 -> 18 ;
19 [label="X[3] <= 150.914\ngini = 0.502\nsamples = 129\nvalue = [79, 0, 0, 0, 45, 5, 0, 0, 0, 0]"] ;
18 -> 19 ;
20 [label="X[0] <= 17.629\ngini = 0.117\nsamples = 64\nvalue = [60, 0, 0, 0, 4, 0, 0, 0, 0, 0]"] ;
19 -> 20 ;
21 [label="gini = 0.444\nsamples = 3\nvalue = [1, 0, 0, 0, 2, 0, 0, 0, 0, 0]"] ;
20 -> 21 ;
22 [label="gini = 0.063\nsamples = 61\nvalue = [59, 0, 0, 0, 2, 0, 0, 0, 0, 0]"] ;
20 -> 22 ;
23 [label="X[2] <= 35.663\ngini = 0.511\nsamples = 65\nvalue = [19, 0, 0, 0, 41, 5, 0, 0, 0, 0]"] ;
19 -> 23 ;
24 [label="gini = 0.0\nsamples = 25\nvalue = [0, 0, 0, 0, 25, 0, 0, 0, 0, 0]"] ;
23 -> 24 ;
25 [label="gini = 0.599\nsamples = 40\nvalue = [19, 0, 0, 0, 16, 5, 0, 0, 0, 0]"] ;
23 -> 25 ;
26 [label="X[2] <= 43.815\ngini = 0.174\nsamples = 878\nvalue = [67, 0, 0, 0, 795, 15, 0, 0, 1, 0]"] ;
18 -> 26 ;
27 [label="X[3] <= 148.176\ngini = 0.149\nsamples = 865\nvalue = [67, 0, 0, 0, 795, 2, 0, 0, 1, 0]"] ;
26 -> 27 ;
28 [label="gini = 0.384\nsamples = 137\nvalue = [34, 0, 0, 0, 102, 1, 0, 0, 0, 0]"] ;
27 -> 28 ;
29 [label="gini = 0.092\nsamples = 728\nvalue = [33, 0, 0, 0, 693, 1, 0, 0, 1, 0]"] ;
27 -> 29 ;
30 [label="gini = 0.0\nsamples = 13\nvalue = [0, 0, 0, 0, 0, 13, 0, 0, 0, 0]"] ;
26 -> 30 ;
31 [label="X[2] <= 43.365\ngini = 0.793\nsamples = 1437\nvalue = [17, 307, 99, 349, 37, 349, 0, 279, 0, 0]"] ;
1 -> 31 ;
32 [label="X[3] <= 144.215\ngini = 0.233\nsamples = 401\nvalue = [17, 0, 0, 0, 35, 349, 0, 0, 0, 0]"] ;
31 -> 32 ;
33 [label="X[2] <= 31.739\ngini = 0.124\nsamples = 367\nvalue = [16, 0, 0, 0, 8, 343, 0, 0, 0, 0]"] ;
32 -> 33 ;
34 [label="X[3] <= 135.353\ngini = 0.434\nsamples = 22\nvalue = [0, 0, 0, 0, 7, 15, 0, 0, 0, 0]"] ;
33 -> 34 ;
35 [label="gini = 0.0\nsamples = 15\nvalue = [0, 0, 0, 0, 0, 15, 0, 0, 0, 0]"] ;
34 -> 35 ;
36 [label="gini = 0.0\nsamples = 7\nvalue = [0, 0, 0, 0, 7, 0, 0, 0, 0, 0]"] ;
34 -> 36 ;
37 [label="X[1] <= 16.055\ngini = 0.094\nsamples = 345\nvalue = [16, 0, 0, 0, 1, 328, 0, 0, 0, 0]"] ;
33 -> 37 ;
38 [label="gini = 0.5\nsamples = 2\nvalue = [1, 0, 0, 0, 1, 0, 0, 0, 0, 0]"] ;
37 -> 38 ;
39 [label="gini = 0.084\nsamples = 343\nvalue = [15, 0, 0, 0, 0, 328, 0, 0, 0, 0]"] ;
37 -> 39 ;
40 [label="X[2] <= 40.608\ngini = 0.337\nsamples = 34\nvalue = [1, 0, 0, 0, 27, 6, 0, 0, 0, 0]"] ;
32 -> 40 ;
41 [label="gini = 0.0\nsamples = 26\nvalue = [0, 0, 0, 0, 26, 0, 0, 0, 0, 0]"] ;
40 -> 41 ;
42 [label="X[5] <= 26.189\ngini = 0.406\nsamples = 8\nvalue = [1, 0, 0, 0, 1, 6, 0, 0, 0, 0]"] ;
40 -> 42 ;
43 [label="gini = 0.5\nsamples = 2\nvalue = [1, 0, 0, 0, 1, 0, 0, 0, 0, 0]"] ;
42 -> 43 ;
44 [label="gini = 0.0\nsamples = 6\nvalue = [0, 0, 0, 0, 0, 6, 0, 0, 0, 0]"] ;
42 -> 44 ;
45 [label="X[3] <= 118.184\ngini = 0.717\nsamples = 1036\nvalue = [0, 307, 99, 349, 2, 0, 0, 279, 0, 0]"] ;
31 -> 45 ;
46 [label="X[2] <= 56.856\ngini = 0.157\nsamples = 335\nvalue = [0, 307, 1, 16, 0, 0, 0, 11, 0, 0]"] ;
45 -> 46 ;
47 [label="X[4] <= 32.909\ngini = 0.597\nsamples = 31\nvalue = [0, 3, 1, 16, 0, 0, 0, 11, 0, 0]"] ;
46 -> 47 ;
48 [label="gini = 0.335\nsamples = 20\nvalue = [0, 3, 1, 16, 0, 0, 0, 0, 0, 0]"] ;
47 -> 48 ;
49 [label="gini = 0.0\nsamples = 11\nvalue = [0, 0, 0, 0, 0, 0, 0, 11, 0, 0]"] ;
47 -> 49 ;
50 [label="gini = 0.0\nsamples = 304\nvalue = [0, 304, 0, 0, 0, 0, 0, 0, 0, 0]"] ;
46 -> 50 ;
51 [label="X[6] <= 70.89\ngini = 0.609\nsamples = 701\nvalue = [0, 0, 98, 333, 2, 0, 0, 268, 0, 0]"] ;
45 -> 51 ;
52 [label="X[1] <= 34.707\ngini = 0.398\nsamples = 443\nvalue = [0, 0, 90, 331, 2, 0, 0, 20, 0, 0]"] ;
51 -> 52 ;
53 [label="gini = 0.169\nsamples = 313\nvalue = [0, 0, 27, 284, 2, 0, 0, 0, 0, 0]"] ;
52 -> 53 ;
54 [label="gini = 0.611\nsamples = 130\nvalue = [0, 0, 63, 47, 0, 0, 0, 20, 0, 0]"] ;
52 -> 54 ;
55 [label="X[0] <= 32.49\ngini = 0.075\nsamples = 258\nvalue = [0, 0, 8, 2, 0, 0, 0, 248, 0, 0]"] ;
51 -> 55 ;
56 [label="gini = 0.0\nsamples = 5\nvalue = [0, 0, 5, 0, 0, 0, 0, 0, 0, 0]"] ;
55 -> 56 ;
57 [label="gini = 0.039\nsamples = 253\nvalue = [0, 0, 3, 2, 0, 0, 0, 248, 0, 0]"] ;
55 -> 57 ;
58 [label="X[0] <= 29.259\ngini = 0.28\nsamples = 2119\nvalue = [0, 0, 0, 0, 0, 0, 357, 0, 0, 1762]"] ;
0 -> 58 [labeldistance=2.5, labelangle=-45, headlabel="False"] ;
59 [label="X[2] <= 62.241\ngini = 0.036\nsamples = 1713\nvalue = [0, 0, 0, 0, 0, 0, 31, 0, 0, 1682]"] ;
58 -> 59 ;
60 [label="X[2] <= 60.555\ngini = 0.007\nsamples = 1649\nvalue = [0, 0, 0, 0, 0, 0, 6, 0, 0, 1643]"] ;
59 -> 60 ;
61 [label="gini = 0.0\nsamples = 1599\nvalue = [0, 0, 0, 0, 0, 0, 0, 0, 0, 1599]"] ;
60 -> 61 ;
62 [label="X[1] <= 25.758\ngini = 0.211\nsamples = 50\nvalue = [0, 0, 0, 0, 0, 0, 6, 0, 0, 44]"] ;
60 -> 62 ;
63 [label="gini = 0.0\nsamples = 42\nvalue = [0, 0, 0, 0, 0, 0, 0, 0, 0, 42]"] ;
62 -> 63 ;
64 [label="X[0] <= 19.146\ngini = 0.375\nsamples = 8\nvalue = [0, 0, 0, 0, 0, 0, 6, 0, 0, 2]"] ;
62 -> 64 ;
65 [label="gini = 0.0\nsamples = 2\nvalue = [0, 0, 0, 0, 0, 0, 0, 0, 0, 2]"] ;
64 -> 65 ;
66 [label="gini = 0.0\nsamples = 6\nvalue = [0, 0, 0, 0, 0, 0, 6, 0, 0, 0]"] ;
64 -> 66 ;
67 [label="X[1] <= 23.42\ngini = 0.476\nsamples = 64\nvalue = [0, 0, 0, 0, 0, 0, 25, 0, 0, 39]"] ;
59 -> 67 ;
68 [label="gini = 0.0\nsamples = 38\nvalue = [0, 0, 0, 0, 0, 0, 0, 0, 0, 38]"] ;
67 -> 68 ;
69 [label="X[4] <= 35.829\ngini = 0.074\nsamples = 26\nvalue = [0, 0, 0, 0, 0, 0, 25, 0, 0, 1]"] ;
67 -> 69 ;
70 [label="gini = 0.0\nsamples = 25\nvalue = [0, 0, 0, 0, 0, 0, 25, 0, 0, 0]"] ;
69 -> 70 ;
71 [label="gini = 0.0\nsamples = 1\nvalue = [0, 0, 0, 0, 0, 0, 0, 0, 0, 1]"] ;
69 -> 71 ;
72 [label="X[1] <= 24.937\ngini = 0.316\nsamples = 406\nvalue = [0, 0, 0, 0, 0, 0, 326, 0, 0, 80]"] ;
58 -> 72 ;
73 [label="gini = 0.0\nsamples = 74\nvalue = [0, 0, 0, 0, 0, 0, 0, 0, 0, 74]"] ;
72 -> 73 ;
74 [label="X[2] <= 49.464\ngini = 0.035\nsamples = 332\nvalue = [0, 0, 0, 0, 0, 0, 326, 0, 0, 6]"] ;
72 -> 74 ;
75 [label="X[6] <= 56.028\ngini = 0.245\nsamples = 7\nvalue = [0, 0, 0, 0, 0, 0, 1, 0, 0, 6]"] ;
74 -> 75 ;
76 [label="gini = 0.0\nsamples = 6\nvalue = [0, 0, 0, 0, 0, 0, 0, 0, 0, 6]"] ;
75 -> 76 ;
77 [label="gini = 0.0\nsamples = 1\nvalue = [0, 0, 0, 0, 0, 0, 1, 0, 0, 0]"] ;
75 -> 77 ;
78 [label="gini = 0.0\nsamples = 325\nvalue = [0, 0, 0, 0, 0, 0, 325, 0, 0, 0]"] ;
74 -> 78 ;
}
